<?xml version="1.0"?>
<opencv_storage>
<cascade>
  <stageType>BOOST</stageType>
  <featureType>HAAR</featureType>
  <height>80</height>
  <width>60</width>
  <stageParams>
    <boostType>GAB</boostType>
    <minHitRate>9.9900001287460327e-01</minHitRate>
    <maxFalseAlarm>5.0000000000000000e-01</maxFalseAlarm>
    <weightTrimRate>9.4999999999999996e-01</weightTrimRate>
    <maxDepth>1</maxDepth>
    <maxWeakCount>100</maxWeakCount></stageParams>
  <featureParams>
    <maxCatCount>0</maxCatCount>
    <featSize>1</featSize>
    <mode>ALL</mode></featureParams>
  <stageNum>2</stageNum>
  <stages>
    <!-- stage 0 -->
    <_>
      <maxWeakCount>2</maxWeakCount>
      <stageThreshold>1.6831068694591522e-01</stageThreshold>
      <weakClassifiers>
        <_>
          <internalNodes>
            0 -1 1 -6.0644589364528656e-02</internalNodes>
          <leafValues>
            1. -8.0645161867141724e-01</leafValues></_>
        <_>
          <internalNodes>
            0 -1 2 1.1657974682748318e-03</internalNodes>
          <leafValues>
            -8.3168929815292358e-01 9.7499012947082520e-01</leafValues></_></weakClassifiers></_>
    <!-- stage 1 -->
    <_>
      <maxWeakCount>1</maxWeakCount>
      <stageThreshold>1.</stageThreshold>
      <weakClassifiers>
        <_>
          <internalNodes>
            0 -1 0 -1.9088879926130176e-03</internalNodes>
          <leafValues>
            -1. 1.</leafValues></_></weakClassifiers></_></stages>
  <features>
    <_>
      <rects>
        <_>
          0 0 12 45 -1.</_>
        <_>
          3 0 6 45 2.</_></rects>
      <tilted>0</tilted></_>
    <_>
      <rects>
        <_>
          15 21 21 13 -1.</_>
        <_>
          22 28 7 13 3.</_></rects>
      <tilted>1</tilted></_>
    <_>
      <rects>
        <_>
          23 40 9 3 -1.</_>
        <_>
          26 40 3 3 3.</_></rects>
      <tilted>0</tilted></_></features></cascade>
</opencv_storage>
