<?xml version="1.0"?>
<opencv_storage>
<cascade>
  <stageType>BOOST</stageType>
  <featureType>HAAR</featureType>
  <height>80</height>
  <width>60</width>
  <stageParams>
    <boostType>GAB</boostType>
    <minHitRate>9.9900001287460327e-01</minHitRate>
    <maxFalseAlarm>5.0000000000000000e-01</maxFalseAlarm>
    <weightTrimRate>9.4999999999999996e-01</weightTrimRate>
    <maxDepth>1</maxDepth>
    <maxWeakCount>100</maxWeakCount></stageParams>
  <featureParams>
    <maxCatCount>0</maxCatCount>
    <featSize>1</featSize>
    <mode>ALL</mode></featureParams>
  <stageNum>3</stageNum>
  <stages>
    <!-- stage 0 -->
    <_>
      <maxWeakCount>2</maxWeakCount>
      <stageThreshold>-5.0756490230560303e-01</stageThreshold>
      <weakClassifiers>
        <_>
          <internalNodes>
            0 -1 4 -2.4727273266762495e-03</internalNodes>
          <leafValues>
            4.7126436233520508e-01 -9.5437264442443848e-01</leafValues></_>
        <_>
          <internalNodes>
            0 -1 1 9.6137486398220062e-03</internalNodes>
          <leafValues>
            4.7914725542068481e-01 -9.7882926464080811e-01</leafValues></_></weakClassifiers></_>
    <!-- stage 1 -->
    <_>
      <maxWeakCount>2</maxWeakCount>
      <stageThreshold>-1.1344104260206223e-01</stageThreshold>
      <weakClassifiers>
        <_>
          <internalNodes>
            0 -1 3 -3.8183783181011677e-03</internalNodes>
          <leafValues>
            1. -9.3771624565124512e-01</leafValues></_>
        <_>
          <internalNodes>
            0 -1 2 -1.0617488995194435e-02</internalNodes>
          <leafValues>
            8.2427519559860229e-01 -9.1343474388122559e-01</leafValues></_></weakClassifiers></_>
    <!-- stage 2 -->
    <_>
      <maxWeakCount>1</maxWeakCount>
      <stageThreshold>1.</stageThreshold>
      <weakClassifiers>
        <_>
          <internalNodes>
            0 -1 0 2.3886012058937922e-05</internalNodes>
          <leafValues>
            -1. 1.</leafValues></_></weakClassifiers></_></stages>
  <features>
    <_>
      <rects>
        <_>
          0 0 2 41 -1.</_>
        <_>
          1 0 1 41 2.</_></rects>
      <tilted>0</tilted></_>
    <_>
      <rects>
        <_>
          14 9 29 56 -1.</_>
        <_>
          14 37 29 28 2.</_></rects>
      <tilted>0</tilted></_>
    <_>
      <rects>
        <_>
          15 34 26 3 -1.</_>
        <_>
          15 34 13 3 2.</_></rects>
      <tilted>1</tilted></_>
    <_>
      <rects>
        <_>
          26 12 12 17 -1.</_>
        <_>
          29 15 6 17 2.</_></rects>
      <tilted>1</tilted></_>
    <_>
      <rects>
        <_>
          32 42 5 6 -1.</_>
        <_>
          32 42 5 3 2.</_></rects>
      <tilted>1</tilted></_></features></cascade>
</opencv_storage>
