<?xml version="1.0"?>
<opencv_storage>
<cascade>
  <stageType>BOOST</stageType>
  <featureType>HAAR</featureType>
  <height>80</height>
  <width>60</width>
  <stageParams>
    <boostType>GAB</boostType>
    <minHitRate>9.9900001287460327e-01</minHitRate>
    <maxFalseAlarm>5.0000000000000000e-01</maxFalseAlarm>
    <weightTrimRate>9.4999999999999996e-01</weightTrimRate>
    <maxDepth>1</maxDepth>
    <maxWeakCount>100</maxWeakCount></stageParams>
  <featureParams>
    <maxCatCount>0</maxCatCount>
    <featSize>1</featSize>
    <mode>ALL</mode></featureParams>
  <stageNum>17</stageNum>
  <stages>
    <!-- stage 0 -->
    <_>
      <maxWeakCount>4</maxWeakCount>
      <stageThreshold>-1.7133406400680542e+00</stageThreshold>
      <weakClassifiers>
        <_>
          <internalNodes>
            0 -1 57 -2.7285244315862656e-02</internalNodes>
          <leafValues>
            7.7272725105285645e-01 -8.9320385456085205e-01</leafValues></_>
        <_>
          <internalNodes>
            0 -1 11 1.0696265846490860e-02</internalNodes>
          <leafValues>
            -8.9925765991210938e-01 4.8584309220314026e-01</leafValues></_>
        <_>
          <internalNodes>
            0 -1 5 -2.5556134060025215e-02</internalNodes>
          <leafValues>
            9.1391336917877197e-01 -5.2525049448013306e-01</leafValues></_>
        <_>
          <internalNodes>
            0 -1 9 -2.6509342715144157e-03</internalNodes>
          <leafValues>
            6.0437136888504028e-01 -6.1756211519241333e-01</leafValues></_></weakClassifiers></_>
    <!-- stage 1 -->
    <_>
      <maxWeakCount>4</maxWeakCount>
      <stageThreshold>-2.0195217132568359e+00</stageThreshold>
      <weakClassifiers>
        <_>
          <internalNodes>
            0 -1 68 3.9414186030626297e-02</internalNodes>
          <leafValues>
            -8.5176467895507812e-01 8.2666665315628052e-01</leafValues></_>
        <_>
          <internalNodes>
            0 -1 35 2.4651020765304565e-02</internalNodes>
          <leafValues>
            -8.4026288986206055e-01 5.0980043411254883e-01</leafValues></_>
        <_>
          <internalNodes>
            0 -1 89 3.8284659385681152e-03</internalNodes>
          <leafValues>
            -7.4938583374023438e-01 5.4256659746170044e-01</leafValues></_>
        <_>
          <internalNodes>
            0 -1 28 3.8886912167072296e-02</internalNodes>
          <leafValues>
            -7.7576696872711182e-01 4.2189171910285950e-01</leafValues></_></weakClassifiers></_>
    <!-- stage 2 -->
    <_>
      <maxWeakCount>4</maxWeakCount>
      <stageThreshold>-1.0492657423019409e+00</stageThreshold>
      <weakClassifiers>
        <_>
          <internalNodes>
            0 -1 70 7.1992382407188416e-02</internalNodes>
          <leafValues>
            -8.5006046295166016e-01 5.9537571668624878e-01</leafValues></_>
        <_>
          <internalNodes>
            0 -1 63 -1.9804546609520912e-02</internalNodes>
          <leafValues>
            3.6157473921775818e-01 -8.6194241046905518e-01</leafValues></_>
        <_>
          <internalNodes>
            0 -1 18 -6.3801202923059464e-03</internalNodes>
          <leafValues>
            3.5309925675392151e-01 -8.0373001098632812e-01</leafValues></_>
        <_>
          <internalNodes>
            0 -1 46 -2.8243870474398136e-03</internalNodes>
          <leafValues>
            3.0963784456253052e-01 -8.4068793058395386e-01</leafValues></_></weakClassifiers></_>
    <!-- stage 3 -->
    <_>
      <maxWeakCount>5</maxWeakCount>
      <stageThreshold>-1.3070446252822876e+00</stageThreshold>
      <weakClassifiers>
        <_>
          <internalNodes>
            0 -1 72 3.6791913211345673e-02</internalNodes>
          <leafValues>
            -8.1664657592773438e-01 4.5029240846633911e-01</leafValues></_>
        <_>
          <internalNodes>
            0 -1 52 -1.0410292074084282e-02</internalNodes>
          <leafValues>
            5.0811487436294556e-01 -5.8683425188064575e-01</leafValues></_>
        <_>
          <internalNodes>
            0 -1 103 4.8801617231220007e-04</internalNodes>
          <leafValues>
            -7.2665488719940186e-01 3.8969981670379639e-01</leafValues></_>
        <_>
          <internalNodes>
            0 -1 82 6.7944871261715889e-03</internalNodes>
          <leafValues>
            -4.6187785267829895e-01 5.3707814216613770e-01</leafValues></_>
        <_>
          <internalNodes>
            0 -1 84 3.5854575344274053e-06</internalNodes>
          <leafValues>
            -8.0893617868423462e-01 2.9592353105545044e-01</leafValues></_></weakClassifiers></_>
    <!-- stage 4 -->
    <_>
      <maxWeakCount>5</maxWeakCount>
      <stageThreshold>-1.0549018383026123e+00</stageThreshold>
      <weakClassifiers>
        <_>
          <internalNodes>
            0 -1 4 1.9016645848751068e-02</internalNodes>
          <leafValues>
            -7.8091871738433838e-01 4.1721853613853455e-01</leafValues></_>
        <_>
          <internalNodes>
            0 -1 16 4.7936622286215425e-04</internalNodes>
          <leafValues>
            -7.2682017087936401e-01 2.2504717111587524e-01</leafValues></_>
        <_>
          <internalNodes>
            0 -1 8 1.2736115604639053e-03</internalNodes>
          <leafValues>
            -4.4994735717773438e-01 5.1588875055313110e-01</leafValues></_>
        <_>
          <internalNodes>
            0 -1 76 1.0758047923445702e-02</internalNodes>
          <leafValues>
            -3.3806103467941284e-01 6.8387657403945923e-01</leafValues></_>
        <_>
          <internalNodes>
            0 -1 74 -6.9813766458537430e-05</internalNodes>
          <leafValues>
            3.4949970245361328e-01 -7.3295950889587402e-01</leafValues></_></weakClassifiers></_>
    <!-- stage 5 -->
    <_>
      <maxWeakCount>7</maxWeakCount>
      <stageThreshold>-1.4464359283447266e+00</stageThreshold>
      <weakClassifiers>
        <_>
          <internalNodes>
            0 -1 41 2.8614174574613571e-02</internalNodes>
          <leafValues>
            -8.3798885345458984e-01 -7.3298174761663191e-17</leafValues></_>
        <_>
          <internalNodes>
            0 -1 50 -6.0258684679865837e-03</internalNodes>
          <leafValues>
            3.2814612984657288e-01 -6.2496989965438843e-01</leafValues></_>
        <_>
          <internalNodes>
            0 -1 92 -4.7307211207225919e-04</internalNodes>
          <leafValues>
            4.0080568194389343e-01 -5.2040815353393555e-01</leafValues></_>
        <_>
          <internalNodes>
            0 -1 58 1.1662623728625476e-04</internalNodes>
          <leafValues>
            -4.3611389398574829e-01 5.2738809585571289e-01</leafValues></_>
        <_>
          <internalNodes>
            0 -1 86 4.6185511746443808e-04</internalNodes>
          <leafValues>
            -5.3388470411300659e-01 3.9936283230781555e-01</leafValues></_>
        <_>
          <internalNodes>
            0 -1 49 1.2975264689885080e-04</internalNodes>
          <leafValues>
            2.6801761984825134e-01 -8.9800661802291870e-01</leafValues></_>
        <_>
          <internalNodes>
            0 -1 6 -4.8234865069389343e-02</internalNodes>
          <leafValues>
            5.5118608474731445e-01 -4.0264117717742920e-01</leafValues></_></weakClassifiers></_>
    <!-- stage 6 -->
    <_>
      <maxWeakCount>8</maxWeakCount>
      <stageThreshold>-1.6736068725585938e+00</stageThreshold>
      <weakClassifiers>
        <_>
          <internalNodes>
            0 -1 3 -1.8678931519389153e-03</internalNodes>
          <leafValues>
            4.8936170339584351e-01 -7.1302425861358643e-01</leafValues></_>
        <_>
          <internalNodes>
            0 -1 94 -1.0508263483643532e-02</internalNodes>
          <leafValues>
            6.9515818357467651e-01 -4.0825286507606506e-01</leafValues></_>
        <_>
          <internalNodes>
            0 -1 21 -4.0305471047759056e-03</internalNodes>
          <leafValues>
            2.9951608180999756e-01 -7.6887989044189453e-01</leafValues></_>
        <_>
          <internalNodes>
            0 -1 38 3.5223243758082390e-03</internalNodes>
          <leafValues>
            2.6105242967605591e-01 -8.4979283809661865e-01</leafValues></_>
        <_>
          <internalNodes>
            0 -1 85 -1.1130956409033388e-04</internalNodes>
          <leafValues>
            -8.5694777965545654e-01 1.8275715410709381e-01</leafValues></_>
        <_>
          <internalNodes>
            0 -1 59 1.2232894077897072e-03</internalNodes>
          <leafValues>
            -5.7664704322814941e-01 3.4599298238754272e-01</leafValues></_>
        <_>
          <internalNodes>
            0 -1 83 -2.0744209177792072e-04</internalNodes>
          <leafValues>
            -8.9332449436187744e-01 2.2597265243530273e-01</leafValues></_>
        <_>
          <internalNodes>
            0 -1 64 -1.7293368000537157e-04</internalNodes>
          <leafValues>
            -9.2131561040878296e-01 1.6586422920227051e-01</leafValues></_></weakClassifiers></_>
    <!-- stage 7 -->
    <_>
      <maxWeakCount>7</maxWeakCount>
      <stageThreshold>-1.5571105480194092e+00</stageThreshold>
      <weakClassifiers>
        <_>
          <internalNodes>
            0 -1 39 2.3256735876202583e-02</internalNodes>
          <leafValues>
            -8.0592989921569824e-01 -7.7519379556179047e-03</leafValues></_>
        <_>
          <internalNodes>
            0 -1 97 -2.1292138262651861e-04</internalNodes>
          <leafValues>
            2.6104485988616943e-01 -5.8395600318908691e-01</leafValues></_>
        <_>
          <internalNodes>
            0 -1 17 1.8940943991765380e-03</internalNodes>
          <leafValues>
            -6.5944421291351318e-01 3.0435159802436829e-01</leafValues></_>
        <_>
          <internalNodes>
            0 -1 77 1.3824125926475972e-04</internalNodes>
          <leafValues>
            -6.9956767559051514e-01 2.5703376531600952e-01</leafValues></_>
        <_>
          <internalNodes>
            0 -1 67 1.7671761452220380e-04</internalNodes>
          <leafValues>
            -3.2001683115959167e-01 5.7743936777114868e-01</leafValues></_>
        <_>
          <internalNodes>
            0 -1 34 5.0578225636854768e-04</internalNodes>
          <leafValues>
            2.6122102141380310e-01 -7.4810218811035156e-01</leafValues></_>
        <_>
          <internalNodes>
            0 -1 73 2.7529051294550300e-05</internalNodes>
          <leafValues>
            -4.4243985414505005e-01 4.5110964775085449e-01</leafValues></_></weakClassifiers></_>
    <!-- stage 8 -->
    <_>
      <maxWeakCount>6</maxWeakCount>
      <stageThreshold>-1.1852117776870728e+00</stageThreshold>
      <weakClassifiers>
        <_>
          <internalNodes>
            0 -1 60 -3.9702497422695160e-02</internalNodes>
          <leafValues>
            9.3750000000000000e-02 -7.6485151052474976e-01</leafValues></_>
        <_>
          <internalNodes>
            0 -1 27 -2.5055516744032502e-04</internalNodes>
          <leafValues>
            2.1839836239814758e-01 -6.1540651321411133e-01</leafValues></_>
        <_>
          <internalNodes>
            0 -1 13 -6.8263825960457325e-04</internalNodes>
          <leafValues>
            -1. 1.3954576849937439e-01</leafValues></_>
        <_>
          <internalNodes>
            0 -1 78 -5.9552770107984543e-04</internalNodes>
          <leafValues>
            -8.3403962850570679e-01 1.9612877070903778e-01</leafValues></_>
        <_>
          <internalNodes>
            0 -1 1 -2.0482861436903477e-03</internalNodes>
          <leafValues>
            4.3730273842811584e-01 -4.4901278614997864e-01</leafValues></_>
        <_>
          <internalNodes>
            0 -1 43 1.3515268801711500e-04</internalNodes>
          <leafValues>
            -3.8156759738922119e-01 4.9988874793052673e-01</leafValues></_></weakClassifiers></_>
    <!-- stage 9 -->
    <_>
      <maxWeakCount>7</maxWeakCount>
      <stageThreshold>-1.5630224943161011e+00</stageThreshold>
      <weakClassifiers>
        <_>
          <internalNodes>
            0 -1 0 5.9476601891219616e-03</internalNodes>
          <leafValues>
            -6.9050163030624390e-01 7.4603176116943359e-01</leafValues></_>
        <_>
          <internalNodes>
            0 -1 100 -3.6485656164586544e-03</internalNodes>
          <leafValues>
            6.6515833139419556e-01 -3.8929802179336548e-01</leafValues></_>
        <_>
          <internalNodes>
            0 -1 69 -9.3867260147817433e-05</internalNodes>
          <leafValues>
            3.4375989437103271e-01 -7.9652446508407593e-01</leafValues></_>
        <_>
          <internalNodes>
            0 -1 66 1.5040100552141666e-03</internalNodes>
          <leafValues>
            -3.6945569515228271e-01 5.7115334272384644e-01</leafValues></_>
        <_>
          <internalNodes>
            0 -1 61 1.6077645123004913e-02</internalNodes>
          <leafValues>
            -4.8994168639183044e-01 4.0790924429893494e-01</leafValues></_>
        <_>
          <internalNodes>
            0 -1 54 2.1288886200636625e-03</internalNodes>
          <leafValues>
            -2.6148945093154907e-01 7.0671290159225464e-01</leafValues></_>
        <_>
          <internalNodes>
            0 -1 95 4.2198030860163271e-04</internalNodes>
          <leafValues>
            2.9390400648117065e-01 -8.1775408983230591e-01</leafValues></_></weakClassifiers></_>
    <!-- stage 10 -->
    <_>
      <maxWeakCount>5</maxWeakCount>
      <stageThreshold>-9.4073659181594849e-01</stageThreshold>
      <weakClassifiers>
        <_>
          <internalNodes>
            0 -1 105 3.2298087608069181e-03</internalNodes>
          <leafValues>
            -7.2103488445281982e-01 3.6936935782432556e-01</leafValues></_>
        <_>
          <internalNodes>
            0 -1 36 -2.3761841002851725e-03</internalNodes>
          <leafValues>
            4.1807109117507935e-01 -4.8982053995132446e-01</leafValues></_>
        <_>
          <internalNodes>
            0 -1 44 4.7148074954748154e-03</internalNodes>
          <leafValues>
            1.8284551799297333e-01 -9.1263562440872192e-01</leafValues></_>
        <_>
          <internalNodes>
            0 -1 51 -2.7479719370603561e-02</internalNodes>
          <leafValues>
            -9.3813145160675049e-01 1.7608538269996643e-01</leafValues></_>
        <_>
          <internalNodes>
            0 -1 88 -1.2493265967350453e-04</internalNodes>
          <leafValues>
            -9.5062935352325439e-01 1.1751306802034378e-01</leafValues></_></weakClassifiers></_>
    <!-- stage 11 -->
    <_>
      <maxWeakCount>7</maxWeakCount>
      <stageThreshold>-1.3586630821228027e+00</stageThreshold>
      <weakClassifiers>
        <_>
          <internalNodes>
            0 -1 81 -4.0467139333486557e-03</internalNodes>
          <leafValues>
            3.9622640609741211e-01 -7.1812081336975098e-01</leafValues></_>
        <_>
          <internalNodes>
            0 -1 47 -1.3838896527886391e-02</internalNodes>
          <leafValues>
            7.7464932203292847e-01 -3.4916543960571289e-01</leafValues></_>
        <_>
          <internalNodes>
            0 -1 15 -2.1074552205391228e-04</internalNodes>
          <leafValues>
            -7.1643096208572388e-01 3.0578538775444031e-01</leafValues></_>
        <_>
          <internalNodes>
            0 -1 29 -3.2992335036396980e-05</internalNodes>
          <leafValues>
            2.7025368809700012e-01 -6.3471156358718872e-01</leafValues></_>
        <_>
          <internalNodes>
            0 -1 12 2.7475168462842703e-04</internalNodes>
          <leafValues>
            -4.6753954887390137e-01 3.8829550147056580e-01</leafValues></_>
        <_>
          <internalNodes>
            0 -1 25 -1.1281412094831467e-02</internalNodes>
          <leafValues>
            2.5285169482231140e-01 -6.7943251132965088e-01</leafValues></_>
        <_>
          <internalNodes>
            0 -1 80 6.7058877903036773e-05</internalNodes>
          <leafValues>
            -4.6724578738212585e-01 3.6948820948600769e-01</leafValues></_></weakClassifiers></_>
    <!-- stage 12 -->
    <_>
      <maxWeakCount>8</maxWeakCount>
      <stageThreshold>-1.2281483411788940e+00</stageThreshold>
      <weakClassifiers>
        <_>
          <internalNodes>
            0 -1 48 -5.8836296200752258e-02</internalNodes>
          <leafValues>
            4.5098039507865906e-01 -7.1937638521194458e-01</leafValues></_>
        <_>
          <internalNodes>
            0 -1 53 -7.7547682449221611e-03</internalNodes>
          <leafValues>
            3.7982365489006042e-01 -4.8529919981956482e-01</leafValues></_>
        <_>
          <internalNodes>
            0 -1 22 -1.0802286124089733e-04</internalNodes>
          <leafValues>
            -7.7695584297180176e-01 2.0327106118202209e-01</leafValues></_>
        <_>
          <internalNodes>
            0 -1 79 5.7050851173698902e-03</internalNodes>
          <leafValues>
            -3.8507407903671265e-01 4.5457014441490173e-01</leafValues></_>
        <_>
          <internalNodes>
            0 -1 2 -3.9038824616000056e-04</internalNodes>
          <leafValues>
            5.0191015005111694e-01 -3.3819994330406189e-01</leafValues></_>
        <_>
          <internalNodes>
            0 -1 75 -6.6718072048388422e-05</internalNodes>
          <leafValues>
            3.4437963366508484e-01 -4.9012967944145203e-01</leafValues></_>
        <_>
          <internalNodes>
            0 -1 14 -7.8364331275224686e-03</internalNodes>
          <leafValues>
            7.4642390012741089e-01 -2.3910473287105560e-01</leafValues></_>
        <_>
          <internalNodes>
            0 -1 102 -5.5638613412156701e-04</internalNodes>
          <leafValues>
            5.3137212991714478e-01 -3.2194766402244568e-01</leafValues></_></weakClassifiers></_>
    <!-- stage 13 -->
    <_>
      <maxWeakCount>7</maxWeakCount>
      <stageThreshold>-1.0549751520156860e+00</stageThreshold>
      <weakClassifiers>
        <_>
          <internalNodes>
            0 -1 71 2.2427020594477654e-02</internalNodes>
          <leafValues>
            -7.1331828832626343e-01 2.8070175647735596e-01</leafValues></_>
        <_>
          <internalNodes>
            0 -1 45 2.4150023236870766e-02</internalNodes>
          <leafValues>
            -7.1073925495147705e-01 1.3812637329101562e-01</leafValues></_>
        <_>
          <internalNodes>
            0 -1 62 -1.8746400019153953e-04</internalNodes>
          <leafValues>
            -8.9326465129852295e-01 1.4826685190200806e-01</leafValues></_>
        <_>
          <internalNodes>
            0 -1 106 -2.7483014855533838e-04</internalNodes>
          <leafValues>
            6.0096144676208496e-01 -2.8177556395530701e-01</leafValues></_>
        <_>
          <internalNodes>
            0 -1 26 1.5069153159856796e-03</internalNodes>
          <leafValues>
            2.4554525315761566e-01 -8.0592447519302368e-01</leafValues></_>
        <_>
          <internalNodes>
            0 -1 37 -2.9983178246766329e-03</internalNodes>
          <leafValues>
            2.9793298244476318e-01 -5.6952410936355591e-01</leafValues></_>
        <_>
          <internalNodes>
            0 -1 40 -3.9139604195952415e-03</internalNodes>
          <leafValues>
            -9.1318255662918091e-01 1.6171701252460480e-01</leafValues></_></weakClassifiers></_>
    <!-- stage 14 -->
    <_>
      <maxWeakCount>6</maxWeakCount>
      <stageThreshold>-1.4523309469223022e+00</stageThreshold>
      <weakClassifiers>
        <_>
          <internalNodes>
            0 -1 10 7.2460874915122986e-02</internalNodes>
          <leafValues>
            -7.0888888835906982e-01 3.7999999523162842e-01</leafValues></_>
        <_>
          <internalNodes>
            0 -1 93 -5.4780974984169006e-02</internalNodes>
          <leafValues>
            5.2695322036743164e-01 -4.1238608956336975e-01</leafValues></_>
        <_>
          <internalNodes>
            0 -1 32 -3.5095311701297760e-02</internalNodes>
          <leafValues>
            -8.4953105449676514e-01 2.1275472640991211e-01</leafValues></_>
        <_>
          <internalNodes>
            0 -1 42 8.9148507686331868e-04</internalNodes>
          <leafValues>
            -3.6946213245391846e-01 4.6501424908638000e-01</leafValues></_>
        <_>
          <internalNodes>
            0 -1 31 -3.7598818540573120e-02</internalNodes>
          <leafValues>
            -8.4238719940185547e-01 2.2711339592933655e-01</leafValues></_>
        <_>
          <internalNodes>
            0 -1 87 8.0087557435035706e-03</internalNodes>
          <leafValues>
            -2.7851554751396179e-01 6.6330444812774658e-01</leafValues></_></weakClassifiers></_>
    <!-- stage 15 -->
    <_>
      <maxWeakCount>8</maxWeakCount>
      <stageThreshold>-1.7665787935256958e+00</stageThreshold>
      <weakClassifiers>
        <_>
          <internalNodes>
            0 -1 19 -2.7384493499994278e-02</internalNodes>
          <leafValues>
            3.4453782439231873e-01 -7.2758227586746216e-01</leafValues></_>
        <_>
          <internalNodes>
            0 -1 99 -1.1833569034934044e-02</internalNodes>
          <leafValues>
            5.4989951848983765e-01 -4.0187734365463257e-01</leafValues></_>
        <_>
          <internalNodes>
            0 -1 23 2.2173607721924782e-03</internalNodes>
          <leafValues>
            -6.2113094329833984e-01 2.9247432947158813e-01</leafValues></_>
        <_>
          <internalNodes>
            0 -1 98 4.3933391571044922e-03</internalNodes>
          <leafValues>
            -3.1485700607299805e-01 5.8508294820785522e-01</leafValues></_>
        <_>
          <internalNodes>
            0 -1 91 7.2947368607856333e-05</internalNodes>
          <leafValues>
            -4.7437387704849243e-01 3.7560430169105530e-01</leafValues></_>
        <_>
          <internalNodes>
            0 -1 30 2.5218038354068995e-04</internalNodes>
          <leafValues>
            4.1670992970466614e-01 -4.7186717391014099e-01</leafValues></_>
        <_>
          <internalNodes>
            0 -1 101 1.4004379045218229e-03</internalNodes>
          <leafValues>
            2.2154238820075989e-01 -8.8686317205429077e-01</leafValues></_>
        <_>
          <internalNodes>
            0 -1 33 5.8023835299536586e-04</internalNodes>
          <leafValues>
            1.7358924448490143e-01 -8.8382685184478760e-01</leafValues></_></weakClassifiers></_>
    <!-- stage 16 -->
    <_>
      <maxWeakCount>9</maxWeakCount>
      <stageThreshold>-1.4197332859039307e+00</stageThreshold>
      <weakClassifiers>
        <_>
          <internalNodes>
            0 -1 104 1.5920918434858322e-02</internalNodes>
          <leafValues>
            -7.3964494466781616e-01 1.6129031777381897e-01</leafValues></_>
        <_>
          <internalNodes>
            0 -1 7 1.0405591689050198e-02</internalNodes>
          <leafValues>
            -4.2537170648574829e-01 6.2486660480499268e-01</leafValues></_>
        <_>
          <internalNodes>
            0 -1 56 2.6981616392731667e-03</internalNodes>
          <leafValues>
            -4.4395229220390320e-01 3.6879280209541321e-01</leafValues></_>
        <_>
          <internalNodes>
            0 -1 90 1.1869601439684629e-04</internalNodes>
          <leafValues>
            -3.6247611045837402e-01 5.0794357061386108e-01</leafValues></_>
        <_>
          <internalNodes>
            0 -1 55 2.3268740624189377e-02</internalNodes>
          <leafValues>
            -2.7852380275726318e-01 5.9490191936492920e-01</leafValues></_>
        <_>
          <internalNodes>
            0 -1 65 -2.0768173038959503e-02</internalNodes>
          <leafValues>
            6.8928205966949463e-01 -3.0048558115959167e-01</leafValues></_>
        <_>
          <internalNodes>
            0 -1 96 -1.8805055879056454e-04</internalNodes>
          <leafValues>
            -8.1039190292358398e-01 2.8251746296882629e-01</leafValues></_>
        <_>
          <internalNodes>
            0 -1 20 -3.6601580213755369e-03</internalNodes>
          <leafValues>
            6.3284122943878174e-01 -3.0287164449691772e-01</leafValues></_>
        <_>
          <internalNodes>
            0 -1 24 1.7495529027655721e-04</internalNodes>
          <leafValues>
            -5.3696972131729126e-01 3.3833026885986328e-01</leafValues></_></weakClassifiers></_></stages>
  <features>
    <_>
      <rects>
        <_>
          0 11 4 36 -1.</_>
        <_>
          0 11 2 18 2.</_>
        <_>
          2 29 2 18 2.</_></rects>
      <tilted>0</tilted></_>
    <_>
      <rects>
        <_>
          0 20 4 57 -1.</_>
        <_>
          2 20 2 57 2.</_></rects>
      <tilted>0</tilted></_>
    <_>
      <rects>
        <_>
          0 25 4 5 -1.</_>
        <_>
          2 25 2 5 2.</_></rects>
      <tilted>0</tilted></_>
    <_>
      <rects>
        <_>
          0 28 2 45 -1.</_>
        <_>
          1 28 1 45 2.</_></rects>
      <tilted>0</tilted></_>
    <_>
      <rects>
        <_>
          0 29 12 24 -1.</_>
        <_>
          6 29 6 24 2.</_></rects>
      <tilted>0</tilted></_>
    <_>
      <rects>
        <_>
          0 52 20 28 -1.</_>
        <_>
          0 52 10 14 2.</_>
        <_>
          10 66 10 14 2.</_></rects>
      <tilted>0</tilted></_>
    <_>
      <rects>
        <_>
          1 1 55 20 -1.</_>
        <_>
          1 11 55 10 2.</_></rects>
      <tilted>0</tilted></_>
    <_>
      <rects>
        <_>
          1 25 8 20 -1.</_>
        <_>
          5 25 4 20 2.</_></rects>
      <tilted>0</tilted></_>
    <_>
      <rects>
        <_>
          1 32 9 7 -1.</_>
        <_>
          4 32 3 7 3.</_></rects>
      <tilted>0</tilted></_>
    <_>
      <rects>
        <_>
          2 6 56 8 -1.</_>
        <_>
          2 10 56 4 2.</_></rects>
      <tilted>0</tilted></_>
    <_>
      <rects>
        <_>
          4 30 38 32 -1.</_>
        <_>
          4 38 38 16 2.</_></rects>
      <tilted>0</tilted></_>
    <_>
      <rects>
        <_>
          5 36 22 26 -1.</_>
        <_>
          5 36 11 13 2.</_>
        <_>
          16 49 11 13 2.</_></rects>
      <tilted>0</tilted></_>
    <_>
      <rects>
        <_>
          5 42 8 15 -1.</_>
        <_>
          7 42 4 15 2.</_></rects>
      <tilted>0</tilted></_>
    <_>
      <rects>
        <_>
          6 55 42 4 -1.</_>
        <_>
          6 56 42 2 2.</_></rects>
      <tilted>0</tilted></_>
    <_>
      <rects>
        <_>
          7 23 15 8 -1.</_>
        <_>
          12 23 5 8 3.</_></rects>
      <tilted>0</tilted></_>
    <_>
      <rects>
        <_>
          8 38 6 12 -1.</_>
        <_>
          10 42 2 4 9.</_></rects>
      <tilted>0</tilted></_>
    <_>
      <rects>
        <_>
          8 40 4 21 -1.</_>
        <_>
          10 40 2 21 2.</_></rects>
      <tilted>0</tilted></_>
    <_>
      <rects>
        <_>
          8 50 19 4 -1.</_>
        <_>
          8 50 19 2 2.</_></rects>
      <tilted>1</tilted></_>
    <_>
      <rects>
        <_>
          9 25 22 24 -1.</_>
        <_>
          9 25 11 12 2.</_>
        <_>
          20 37 11 12 2.</_></rects>
      <tilted>0</tilted></_>
    <_>
      <rects>
        <_>
          11 7 42 16 -1.</_>
        <_>
          11 11 42 8 2.</_></rects>
      <tilted>0</tilted></_>
    <_>
      <rects>
        <_>
          11 26 12 6 -1.</_>
        <_>
          15 28 4 2 9.</_></rects>
      <tilted>0</tilted></_>
    <_>
      <rects>
        <_>
          11 40 20 9 -1.</_>
        <_>
          21 40 10 9 2.</_></rects>
      <tilted>0</tilted></_>
    <_>
      <rects>
        <_>
          11 41 4 15 -1.</_>
        <_>
          12 41 2 15 2.</_></rects>
      <tilted>0</tilted></_>
    <_>
      <rects>
        <_>
          11 43 20 4 -1.</_>
        <_>
          16 48 10 4 2.</_></rects>
      <tilted>1</tilted></_>
    <_>
      <rects>
        <_>
          11 68 21 2 -1.</_>
        <_>
          18 68 7 2 3.</_></rects>
      <tilted>0</tilted></_>
    <_>
      <rects>
        <_>
          13 58 28 14 -1.</_>
        <_>
          13 65 28 7 2.</_></rects>
      <tilted>0</tilted></_>
    <_>
      <rects>
        <_>
          13 59 12 9 -1.</_>
        <_>
          13 62 12 3 3.</_></rects>
      <tilted>0</tilted></_>
    <_>
      <rects>
        <_>
          14 36 4 6 -1.</_>
        <_>
          16 36 2 6 2.</_></rects>
      <tilted>0</tilted></_>
    <_>
      <rects>
        <_>
          14 39 29 36 -1.</_>
        <_>
          14 51 29 12 3.</_></rects>
      <tilted>0</tilted></_>
    <_>
      <rects>
        <_>
          14 54 8 4 -1.</_>
        <_>
          14 56 8 2 2.</_></rects>
      <tilted>0</tilted></_>
    <_>
      <rects>
        <_>
          16 33 42 6 -1.</_>
        <_>
          16 33 21 3 2.</_>
        <_>
          37 36 21 3 2.</_></rects>
      <tilted>0</tilted></_>
    <_>
      <rects>
        <_>
          17 18 20 55 -1.</_>
        <_>
          27 18 10 55 2.</_></rects>
      <tilted>0</tilted></_>
    <_>
      <rects>
        <_>
          17 28 21 13 -1.</_>
        <_>
          24 35 7 13 3.</_></rects>
      <tilted>1</tilted></_>
    <_>
      <rects>
        <_>
          17 59 9 1 -1.</_>
        <_>
          20 62 3 1 3.</_></rects>
      <tilted>1</tilted></_>
    <_>
      <rects>
        <_>
          18 29 18 24 -1.</_>
        <_>
          27 29 9 24 2.</_></rects>
      <tilted>0</tilted></_>
    <_>
      <rects>
        <_>
          18 34 17 18 -1.</_>
        <_>
          12 40 17 6 3.</_></rects>
      <tilted>1</tilted></_>
    <_>
      <rects>
        <_>
          18 36 8 12 -1.</_>
        <_>
          18 36 4 6 2.</_>
        <_>
          22 42 4 6 2.</_></rects>
      <tilted>0</tilted></_>
    <_>
      <rects>
        <_>
          18 62 7 14 -1.</_>
        <_>
          18 69 7 7 2.</_></rects>
      <tilted>0</tilted></_>
    <_>
      <rects>
        <_>
          19 37 14 11 -1.</_>
        <_>
          19 37 7 11 2.</_></rects>
      <tilted>1</tilted></_>
    <_>
      <rects>
        <_>
          20 11 18 20 -1.</_>
        <_>
          26 17 6 20 3.</_></rects>
      <tilted>1</tilted></_>
    <_>
      <rects>
        <_>
          20 28 12 6 -1.</_>
        <_>
          20 28 6 6 2.</_></rects>
      <tilted>1</tilted></_>
    <_>
      <rects>
        <_>
          21 35 12 20 -1.</_>
        <_>
          16 40 12 10 2.</_></rects>
      <tilted>1</tilted></_>
    <_>
      <rects>
        <_>
          21 36 8 7 -1.</_>
        <_>
          23 36 4 7 2.</_></rects>
      <tilted>0</tilted></_>
    <_>
      <rects>
        <_>
          22 35 7 3 -1.</_>
        <_>
          21 36 7 1 3.</_></rects>
      <tilted>1</tilted></_>
    <_>
      <rects>
        <_>
          23 41 8 16 -1.</_>
        <_>
          23 41 4 16 2.</_></rects>
      <tilted>1</tilted></_>
    <_>
      <rects>
        <_>
          24 35 17 24 -1.</_>
        <_>
          24 47 17 12 2.</_></rects>
      <tilted>0</tilted></_>
    <_>
      <rects>
        <_>
          24 59 14 12 -1.</_>
        <_>
          24 65 14 6 2.</_></rects>
      <tilted>0</tilted></_>
    <_>
      <rects>
        <_>
          25 13 16 12 -1.</_>
        <_>
          25 17 16 4 3.</_></rects>
      <tilted>0</tilted></_>
    <_>
      <rects>
        <_>
          27 19 21 10 -1.</_>
        <_>
          34 26 7 10 3.</_></rects>
      <tilted>1</tilted></_>
    <_>
      <rects>
        <_>
          27 59 9 3 -1.</_>
        <_>
          27 60 9 1 3.</_></rects>
      <tilted>0</tilted></_>
    <_>
      <rects>
        <_>
          28 22 14 12 -1.</_>
        <_>
          28 28 14 6 2.</_></rects>
      <tilted>0</tilted></_>
    <_>
      <rects>
        <_>
          28 29 17 12 -1.</_>
        <_>
          28 29 17 6 2.</_></rects>
      <tilted>1</tilted></_>
    <_>
      <rects>
        <_>
          28 33 21 9 -1.</_>
        <_>
          35 33 7 9 3.</_></rects>
      <tilted>0</tilted></_>
    <_>
      <rects>
        <_>
          28 36 24 5 -1.</_>
        <_>
          36 36 8 5 3.</_></rects>
      <tilted>0</tilted></_>
    <_>
      <rects>
        <_>
          28 37 9 5 -1.</_>
        <_>
          31 37 3 5 3.</_></rects>
      <tilted>0</tilted></_>
    <_>
      <rects>
        <_>
          28 38 24 9 -1.</_>
        <_>
          36 41 8 3 9.</_></rects>
      <tilted>0</tilted></_>
    <_>
      <rects>
        <_>
          29 17 9 11 -1.</_>
        <_>
          32 20 3 11 3.</_></rects>
      <tilted>1</tilted></_>
    <_>
      <rects>
        <_>
          29 34 24 24 -1.</_>
        <_>
          29 34 12 12 2.</_>
        <_>
          41 46 12 12 2.</_></rects>
      <tilted>0</tilted></_>
    <_>
      <rects>
        <_>
          29 38 4 4 -1.</_>
        <_>
          30 38 2 4 2.</_></rects>
      <tilted>0</tilted></_>
    <_>
      <rects>
        <_>
          30 17 8 12 -1.</_>
        <_>
          32 19 4 12 2.</_></rects>
      <tilted>1</tilted></_>
    <_>
      <rects>
        <_>
          30 24 15 24 -1.</_>
        <_>
          30 32 15 8 3.</_></rects>
      <tilted>0</tilted></_>
    <_>
      <rects>
        <_>
          31 54 24 26 -1.</_>
        <_>
          31 54 12 13 2.</_>
        <_>
          43 67 12 13 2.</_></rects>
      <tilted>0</tilted></_>
    <_>
      <rects>
        <_>
          31 57 12 3 -1.</_>
        <_>
          31 58 12 1 3.</_></rects>
      <tilted>0</tilted></_>
    <_>
      <rects>
        <_>
          32 29 13 18 -1.</_>
        <_>
          32 29 13 9 2.</_></rects>
      <tilted>1</tilted></_>
    <_>
      <rects>
        <_>
          32 59 3 3 -1.</_>
        <_>
          33 60 1 3 3.</_></rects>
      <tilted>1</tilted></_>
    <_>
      <rects>
        <_>
          34 27 21 8 -1.</_>
        <_>
          41 34 7 8 3.</_></rects>
      <tilted>1</tilted></_>
    <_>
      <rects>
        <_>
          35 8 25 4 -1.</_>
        <_>
          34 9 25 2 2.</_></rects>
      <tilted>1</tilted></_>
    <_>
      <rects>
        <_>
          35 15 7 3 -1.</_>
        <_>
          35 16 7 1 3.</_></rects>
      <tilted>0</tilted></_>
    <_>
      <rects>
        <_>
          35 33 18 11 -1.</_>
        <_>
          41 39 6 11 3.</_></rects>
      <tilted>1</tilted></_>
    <_>
      <rects>
        <_>
          35 53 5 6 -1.</_>
        <_>
          35 56 5 3 2.</_></rects>
      <tilted>0</tilted></_>
    <_>
      <rects>
        <_>
          36 28 24 15 -1.</_>
        <_>
          44 36 8 15 3.</_></rects>
      <tilted>1</tilted></_>
    <_>
      <rects>
        <_>
          36 33 12 14 -1.</_>
        <_>
          39 36 6 14 2.</_></rects>
      <tilted>1</tilted></_>
    <_>
      <rects>
        <_>
          36 33 15 15 -1.</_>
        <_>
          41 38 5 15 3.</_></rects>
      <tilted>1</tilted></_>
    <_>
      <rects>
        <_>
          36 48 2 2 -1.</_>
        <_>
          36 48 1 2 2.</_></rects>
      <tilted>1</tilted></_>
    <_>
      <rects>
        <_>
          36 59 3 4 -1.</_>
        <_>
          36 61 3 2 2.</_></rects>
      <tilted>0</tilted></_>
    <_>
      <rects>
        <_>
          36 61 4 3 -1.</_>
        <_>
          38 61 2 3 2.</_></rects>
      <tilted>0</tilted></_>
    <_>
      <rects>
        <_>
          37 37 9 10 -1.</_>
        <_>
          40 40 3 10 3.</_></rects>
      <tilted>1</tilted></_>
    <_>
      <rects>
        <_>
          37 53 4 2 -1.</_>
        <_>
          37 53 2 2 2.</_></rects>
      <tilted>1</tilted></_>
    <_>
      <rects>
        <_>
          37 53 6 11 -1.</_>
        <_>
          39 53 2 11 3.</_></rects>
      <tilted>0</tilted></_>
    <_>
      <rects>
        <_>
          38 23 6 8 -1.</_>
        <_>
          38 23 6 4 2.</_></rects>
      <tilted>1</tilted></_>
    <_>
      <rects>
        <_>
          38 34 2 11 -1.</_>
        <_>
          38 34 1 11 2.</_></rects>
      <tilted>1</tilted></_>
    <_>
      <rects>
        <_>
          39 8 4 12 -1.</_>
        <_>
          39 11 4 6 2.</_></rects>
      <tilted>0</tilted></_>
    <_>
      <rects>
        <_>
          39 15 18 9 -1.</_>
        <_>
          36 18 18 3 3.</_></rects>
      <tilted>1</tilted></_>
    <_>
      <rects>
        <_>
          39 45 3 7 -1.</_>
        <_>
          40 46 1 7 3.</_></rects>
      <tilted>1</tilted></_>
    <_>
      <rects>
        <_>
          39 58 2 1 -1.</_>
        <_>
          39 58 1 1 2.</_></rects>
      <tilted>1</tilted></_>
    <_>
      <rects>
        <_>
          40 46 3 5 -1.</_>
        <_>
          41 47 1 5 3.</_></rects>
      <tilted>1</tilted></_>
    <_>
      <rects>
        <_>
          43 47 4 3 -1.</_>
        <_>
          43 47 2 3 2.</_></rects>
      <tilted>1</tilted></_>
    <_>
      <rects>
        <_>
          44 15 9 9 -1.</_>
        <_>
          41 18 9 3 3.</_></rects>
      <tilted>1</tilted></_>
    <_>
      <rects>
        <_>
          44 49 3 2 -1.</_>
        <_>
          45 50 1 2 3.</_></rects>
      <tilted>1</tilted></_>
    <_>
      <rects>
        <_>
          44 49 6 11 -1.</_>
        <_>
          44 49 3 11 2.</_></rects>
      <tilted>1</tilted></_>
    <_>
      <rects>
        <_>
          44 74 2 6 -1.</_>
        <_>
          44 76 2 2 3.</_></rects>
      <tilted>0</tilted></_>
    <_>
      <rects>
        <_>
          45 48 2 2 -1.</_>
        <_>
          45 48 1 2 2.</_></rects>
      <tilted>1</tilted></_>
    <_>
      <rects>
        <_>
          46 52 6 5 -1.</_>
        <_>
          49 52 3 5 2.</_></rects>
      <tilted>0</tilted></_>
    <_>
      <rects>
        <_>
          47 1 13 52 -1.</_>
        <_>
          47 27 13 26 2.</_></rects>
      <tilted>0</tilted></_>
    <_>
      <rects>
        <_>
          47 4 8 12 -1.</_>
        <_>
          44 7 8 6 2.</_></rects>
      <tilted>1</tilted></_>
    <_>
      <rects>
        <_>
          48 44 3 14 -1.</_>
        <_>
          49 45 1 14 3.</_></rects>
      <tilted>1</tilted></_>
    <_>
      <rects>
        <_>
          49 39 6 1 -1.</_>
        <_>
          51 41 2 1 3.</_></rects>
      <tilted>1</tilted></_>
    <_>
      <rects>
        <_>
          50 38 6 2 -1.</_>
        <_>
          53 38 3 2 2.</_></rects>
      <tilted>0</tilted></_>
    <_>
      <rects>
        <_>
          50 51 10 19 -1.</_>
        <_>
          55 51 5 19 2.</_></rects>
      <tilted>0</tilted></_>
    <_>
      <rects>
        <_>
          51 19 9 12 -1.</_>
        <_>
          47 23 9 4 3.</_></rects>
      <tilted>1</tilted></_>
    <_>
      <rects>
        <_>
          51 22 5 8 -1.</_>
        <_>
          49 24 5 4 2.</_></rects>
      <tilted>1</tilted></_>
    <_>
      <rects>
        <_>
          52 37 2 16 -1.</_>
        <_>
          52 45 2 8 2.</_></rects>
      <tilted>0</tilted></_>
    <_>
      <rects>
        <_>
          52 48 4 7 -1.</_>
        <_>
          54 48 2 7 2.</_></rects>
      <tilted>0</tilted></_>
    <_>
      <rects>
        <_>
          53 46 2 14 -1.</_>
        <_>
          53 46 1 14 2.</_></rects>
      <tilted>1</tilted></_>
    <_>
      <rects>
        <_>
          56 0 4 24 -1.</_>
        <_>
          56 0 4 12 2.</_></rects>
      <tilted>1</tilted></_>
    <_>
      <rects>
        <_>
          56 32 4 26 -1.</_>
        <_>
          56 32 2 13 2.</_>
        <_>
          58 45 2 13 2.</_></rects>
      <tilted>0</tilted></_>
    <_>
      <rects>
        <_>
          56 49 4 4 -1.</_>
        <_>
          57 49 2 4 2.</_></rects>
      <tilted>0</tilted></_></features></cascade>
</opencv_storage>
