<?xml version="1.0"?>
<opencv_storage>
<cascade>
  <stageType>BOOST</stageType>
  <featureType>HAAR</featureType>
  <height>80</height>
  <width>60</width>
  <stageParams>
    <boostType>GAB</boostType>
    <minHitRate>9.9900001287460327e-01</minHitRate>
    <maxFalseAlarm>5.0000000000000000e-01</maxFalseAlarm>
    <weightTrimRate>9.4999999999999996e-01</weightTrimRate>
    <maxDepth>1</maxDepth>
    <maxWeakCount>100</maxWeakCount></stageParams>
  <featureParams>
    <maxCatCount>0</maxCatCount>
    <featSize>1</featSize>
    <mode>ALL</mode></featureParams>
  <stageNum>2</stageNum>
  <stages>
    <!-- stage 0 -->
    <_>
      <maxWeakCount>2</maxWeakCount>
      <stageThreshold>-1.8108312785625458e-01</stageThreshold>
      <weakClassifiers>
        <_>
          <internalNodes>
            0 -1 0 -5.1809083670377731e-03</internalNodes>
          <leafValues>
            1. -8.3606559038162231e-01</leafValues></_>
        <_>
          <internalNodes>
            0 -1 1 1.4784337952733040e-02</internalNodes>
          <leafValues>
            6.5498244762420654e-01 -9.7266298532485962e-01</leafValues></_></weakClassifiers></_>
    <!-- stage 1 -->
    <_>
      <maxWeakCount>2</maxWeakCount>
      <stageThreshold>7.1174376644194126e-03</stageThreshold>
      <weakClassifiers>
        <_>
          <internalNodes>
            0 -1 3 4.2720027267932892e-03</internalNodes>
          <leafValues>
            1. -9.9288254976272583e-01</leafValues></_>
        <_>
          <internalNodes>
            0 -1 2 2.1217574831098318e-03</internalNodes>
          <leafValues>
            1. -9.8591548204421997e-01</leafValues></_></weakClassifiers></_></stages>
  <features>
    <_>
      <rects>
        <_>
          15 43 14 10 -1.</_>
        <_>
          15 48 14 5 2.</_></rects>
      <tilted>0</tilted></_>
    <_>
      <rects>
        <_>
          18 26 20 34 -1.</_>
        <_>
          18 43 20 17 2.</_></rects>
      <tilted>0</tilted></_>
    <_>
      <rects>
        <_>
          25 20 7 18 -1.</_>
        <_>
          25 20 7 9 2.</_></rects>
      <tilted>1</tilted></_>
    <_>
      <rects>
        <_>
          25 20 24 11 -1.</_>
        <_>
          25 20 12 11 2.</_></rects>
      <tilted>1</tilted></_></features></cascade>
</opencv_storage>
